SVM-light Version V6.20
0 # kernel type
3 # kernel parameter -d 
1 # kernel parameter -g 
1 # kernel parameter -s 
1 # kernel parameter -r 
empty# kernel parameter -u 
700 # highest feature index 
98 # number of training documents 
2 # number of support vectors plus 1 
0 # threshold b, each following line is a SV (starting with alpha*y)
1 1:0.056533996 2:-0.030259836 6:0.036486328 7:-0.20446491 8:0.12309846 9:0.011060163 10:-0.006988971 11:-0.19443493 17:-0.12915663 18:-0.04494508 20:-0.19561097 21:-0.18058652 22:-0.0067377803 23:0.012731634 25:0.051446289 26:0.0047544832 27:-0.12353924 28:8.2266793e-05 30:0.027262321 31:-0.02119744 32:0.030623643 33:-0.0014070965 34:0.14685856 36:0.20596273 37:0.42225611 41:0.051267482 43:0.038968258 44:0.020215005 45:-0.021973237 46:0.14021167 47:-0.0067377803 48:0.080331601 53:-0.15899156 55:-0.011126951 56:0.013770464 58:-0.022824166 60:0.12897472 62:-0.029774249 64:0.055228405 66:-0.014373756 67:0.016683968 69:-0.078602999 70:0.055148534 74:0.29064 75:-0.0064707086 76:0.049739018 77:-0.088984407 78:-0.14805086 79:-0.010804174 80:0.010178872 81:-0.018200101 82:0.036578164 83:0.087462313 85:0.022838198 86:-0.10672645 87:-0.019631695 88:0.03035171 89:-0.0028092798 91:0.28306577 96:-0.0035417273 97:0.1020028 98:-0.073528267 99:0.023516884 100:0.19050069 101:0.094645992 102:0.022427633 104:0.032036208 106:-0.0089197308 107:0.014066796 108:0.023123892 110:0.0043449737 111:0.092188463 114:0.0087306676 117:-0.037444845 120:-0.0025921797 121:-0.0004618972 122:0.064647295 123:0.083541647 124:-0.028376915 125:0.042999275 126:0.064652093 127:-0.056119036 128:0.012023964 129:0.10340773 131:0.071392015 132:-0.085646942 133:-0.07840436 135:0.022615559 137:-0.02119744 138:0.08180292 139:0.13432433 140:-0.088329636 141:-0.023075648 143:0.023734732 144:0.25542736 145:-0.048210122 146:0.13411698 147:0.15336204 149:-0.14551914 150:-0.19086865 151:0.15829986 152:-0.045448069 153:0.093846977 154:0.10145117 155:-0.024185501 157:0.11554059 158:-0.045490105 159:-0.054022346 160:0.043637756 161:0.000102285 162:-0.091809236 163:-0.031589448 164:0.072837271 165:0.06651859 166:-0.0047144024 167:0.28087544 168:0.012023964 169:0.021611441 172:0.094910786 173:-0.19036619 174:-0.047730304 175:-0.11420462 176:0.037520029 177:0.087485015 178:0.094662033 179:-0.073467948 181:0.00042914346 182:0.18179166 186:-0.095316589 187:0.015687495 189:0.22048016 190:0.053830076 191:0.063715145 192:0.11175521 193:-0.025589179 195:-0.055796821 196:0.055259086 197:-0.026329823 199:-0.0073181023 201:0.065441795 202:-0.14485422 204:0.034898534 205:-0.0046905652 206:-0.0089197308 208:-0.11960577 212:0.026519937 215:-0.036150333 216:-0.084616467 219:-0.019016042 220:0.030155681 222:-0.00080182304 223:0.0191532 224:-0.016904727 225:-0.006466642 226:-0.0078631807 227:-0.13370638 228:0.031837121 229:0.0042719347 230:0.047410913 231:0.25405002 232:0.13979478 233:0.12039717 234:-0.016134191 235:-0.049715959 236:0.0048264675 238:-0.11053905 239:0.094726279 240:-0.012747677 241:0.14209138 242:-0.16420089 243:-0.02676993 244:-0.20877844 245:-0.0067686294 246:-0.0935072 247:0.013403863 248:-0.043991741 251:0.014364553 253:-0.045064401 254:0.090753913 255:0.052367125 256:-0.061078481 257:0.090828888 259:0.58070481 260:-0.10228289 261:0.40909928 262:-0.0067377803 265:0.0075211227 266:-0.00061381195 267:0.069440819 268:-0.0046686195 274:-0.029249351 275:-0.015964596 276:-0.15341668 277:0.026275622 279:0.050152224 281:0.027412953 282:0.054937333 283:0.049501836 284:0.0198837 285:0.027114503 286:0.0046040197 287:-0.11850376 288:0.016683968 289:0.032083701 290:0.0087306676 291:-0.0014070965 292:-0.0053868699 294:-0.016808683 295:0.015217104 297:0.0010580424 298:-0.0079338141 299:-0.030760473 300:0.061884757 301:0.033403274 302:0.15539882 304:-0.16458151 305:0.0083048707 308:0.051446289 309:-0.19271535 311:0.018710552 312:-0.035441794 313:0.0059641413 316:0.014364553 317:0.0013065189 319:-0.019631695 321:-0.019283209 322:-0.0646796 323:0.022596762 324:-0.057637628 325:-0.059452839 326:0.13726892 329:-0.16785008 330:-0.011394033 331:0.41252586 332:-0.020152379 333:0.0018462425 335:0.12436616 337:-0.095869452 338:0.0067441487 340:0.014364553 341:-0.022491673 342:-0.18720531 344:-0.1165136 345:0.10704385 347:0.0069204043 348:-0.043721784 349:0.084184445 350:-0.014310208 352:0.045526143 354:-0.0067377803 355:-0.15734594 356:0.042964313 358:-0.010491217 359:0.071740612 361:0.010091648 362:0.081273794 363:-0.86888832 366:0.077820286 369:0.0080667073 372:0.029328858 374:-0.068061806 375:0.051446289 376:0.46866742 377:-0.13996395 378:-0.00029603913 379:0.18690903 381:0.27432656 382:0.39315805 383:-0.11990631 384:0.0083048707 385:0.14343669 387:0.10672653 388:-0.00022550042 389:0.045897018 390:-0.0078707859 391:0.016683968 392:-0.0089197308 393:7.0689137e-05 394:0.0088838302 395:0.13761456 397:-0.036572333 398:0.03659372 399:-0.035620827 400:0.037890799 401:-0.00022550042 404:-0.16876204 405:-0.028560117 408:0.14805089 410:0.30542347 412:0.0085170399 414:0.55824244 416:-0.058219709 417:-0.023793628 418:-0.055094864 421:-0.0033558267 423:-0.00022550042 425:0.031837121 426:-0.090944603 427:0.33719301 428:-0.018396217 429:-0.014113056 430:0.12070514 431:-0.032714825 432:-0.78649575 433:-0.095270023 434:0.045593772 435:0.12816371 436:0.081154332 437:0.34010285 438:-0.055020377 439:-0.023243481 440:0.012682198 442:0.033782013 443:0.023392154 444:0.38792777 445:-0.17705171 446:0.20534524 447:-0.032640997 448:0.014364553 450:0.22198133 451:-0.11671656 452:-0.027238414 453:-0.0027738421 454:-0.085435063 455:-0.019631695 456:-0.13499199 457:-0.035441794 458:0.46823755 459:-0.072663069 461:0.22792034 463:0.16861086 468:0.061438911 469:-0.019631695 470:0.058528896 472:-0.003400417 473:-0.019869894 474:-0.037161596 475:-0.17634444 476:-0.21305931 477:0.051059011 478:-0.037444845 479:-0.037444845 480:0.093771614 481:-0.062253308 483:0.00060229289 485:-0.070657961 486:-0.084818766 487:-0.12727305 488:-0.10283358 489:0.00013421757 492:0.074742235 493:-0.037444845 494:0.074742235 495:0.02020349 497:0.13116258 498:-0.0102081 499:-0.015005063 500:0.020145789 502:-0.00042177062 504:-0.13930935 505:0.071486406 507:0.00021183422 508:0.040839024 511:0.038901199 512:0.016683968 513:-0.17445731 514:0.10356165 515:0.040509868 517:0.031837121 518:0.056052487 519:0.010922346 521:-0.021290159 525:0.11589316 527:-0.028967772 528:-0.014687078 529:0.13481894 531:0.0183616 532:0.0068531646 533:0.052139621 534:0.30641392 535:0.0080024246 537:3.1189818e-05 538:0.10679532 539:0.030738963 540:0.050829142 541:0.15609127 542:0.16161932 544:0.032277163 545:-0.070926346 546:0.035022259 548:-0.25349677 554:0.020145789 555:-0.0014070965 556:-0.028918691 557:0.032024056 558:-0.09714891 559:0.051446289 561:0.026809607 562:0.014498879 563:0.16010055 564:-0.0014724778 565:0.0088838302 568:0.084092632 569:0.016433325 570:0.085499234 571:-0.016934406 572:-0.068918124 574:0.062742293 575:0.18364349 578:0.02015744 579:0.17649043 580:0.014812555 581:-0.077552631 583:-0.017862292 585:-0.16464618 586:0.0069204043 587:0.14333658 589:-0.0102081 591:-0.00022550042 592:0.076015532 594:0.033697397 595:0.089500353 596:-0.088243604 598:-0.0076964572 600:-0.098016351 602:-0.058484711 604:0.12510946 605:-0.20817609 606:0.072931021 607:0.13356642 608:0.046643052 610:0.14127934 611:-0.016822597 612:-0.019367622 613:0.016429294 614:0.23676816 615:-0.043486234 616:0.19599302 618:0.10244621 620:0.081961654 621:-0.00041352448 622:-0.10228289 623:0.089917764 624:-0.04715389 625:0.031865578 627:0.077019528 628:-0.04526731 629:-0.0089197308 631:-0.04184271 633:-0.013017711 634:0.019726425 636:-0.050323378 637:0.59800363 638:-0.11071861 639:-0.0024250541 640:-0.13579823 641:0.1688775 642:0.010659796 643:0.02008542 644:0.040973388 645:0.0039748405 647:-5.8820737e-05 648:-0.46995246 650:0.011502407 654:0.026981514 656:0.031014781 657:0.010982123 658:-0.012362447 659:-0.17903326 660:0.005668262 661:-0.0068892906 663:0.0052247089 664:0.082508184 665:0.02113658 666:0.011903035 669:0.021537896 670:0.25667357 671:0.026479568 674:0.21369398 676:0.023638472 677:0.25908232 678:0.023734732 680:0.089350529 681:-0.0014070965 682:0.045318767 683:-0.0028307461 685:-0.027684432 686:-0.028804509 687:-0.01613266 688:0.031837121 689:0.018228449 690:-0.16283487 691:0.010732717 692:-0.093569614 693:-0.2007011 694:-0.093893565 695:0.027009441 696:-0.10273237 697:0.011325613 698:-0.10889449 699:0.16960733 #
