SVM-light Version V6.20
0 # kernel type
3 # kernel parameter -d 
1 # kernel parameter -g 
1 # kernel parameter -s 
1 # kernel parameter -r 
empty# kernel parameter -u 
701 # highest feature index 
89 # number of training documents 
2 # number of support vectors plus 1 
0 # threshold b, each following line is a SV (starting with alpha*y)
1 1:0.075986043 2:0.31015459 3:-0.46433941 4:-0.054745335 5:-0.28540254 6:0.61515468 7:-0.012187254 8:0.18430544 9:0.007021734 10:-0.094190843 11:-0.035760306 13:0.29469624 14:-0.048327573 15:-0.033892896 16:0.087901615 17:-0.15385579 18:-0.035635456 19:0.076789916 20:-0.16519965 21:-0.0099698529 22:-0.04884721 23:0.019546045 24:0.025707444 25:-0.080269337 27:-0.56630659 30:0.037736773 31:-0.084083907 32:0.011839014 33:-0.018716348 34:-0.21485661 35:0.04323126 36:-0.059065428 37:-0.12518817 38:-0.032179881 40:-0.096097827 41:0.18480386 42:-0.068395406 43:0.13615614 44:-0.04585715 45:-0.1258813 47:-0.04884721 48:0.092131756 49:0.23173724 50:0.14986899 51:-0.21462259 53:-0.10736722 54:-0.2372402 55:0.069635049 56:-0.10529745 57:-0.049355548 59:-0.36854672 60:0.17982212 61:-0.33844563 62:0.12486576 64:0.11669918 65:0.020901592 66:0.1190927 68:0.075788975 69:-0.1230322 70:0.056548871 72:0.05511193 73:0.047601297 74:0.22408645 75:0.004041845 76:0.23365286 77:0.086852394 79:-0.0744256 80:0.011145514 81:-0.11782551 82:0.012410383 83:0.0069748894 84:0.074812487 85:-0.17084944 86:0.013546919 87:0.088139877 88:0.018139595 91:0.15269086 92:-0.044656582 93:0.065860502 94:0.013158559 95:-0.25527155 96:0.029689981 97:-0.026509218 98:-0.27345362 99:0.13832292 100:0.33221322 101:-0.042593166 102:0.047786403 103:-0.024608858 105:0.016586518 106:-0.097060405 108:-0.14282715 109:-0.0028457842 112:0.028558539 113:0.52253819 114:0.053885095 115:-0.41382626 116:-0.28746405 117:-0.040751267 118:-0.14526366 119:0.12278531 120:-0.093962811 121:0.17678751 122:0.016971314 123:-0.084431 124:-0.082843415 126:-0.12279249 127:-0.057997804 128:0.023816112 129:0.1041313 130:-0.079321913 133:-0.053022161 134:0.017765021 135:0.087415285 136:-0.015908502 137:-0.084083907 138:0.13392746 139:0.079466939 140:-0.16349792 142:-0.10303494 143:-0.020429481 144:0.60592014 145:-0.11613318 146:0.17434946 147:0.20927149 148:0.33731467 149:0.037013516 150:0.040734813 151:0.1025415 152:-0.43057564 153:-0.28535101 154:0.18902954 155:0.23713352 158:0.10375323 159:-0.0088270353 162:-0.07820975 163:-0.0067081284 164:0.35635784 165:0.051833022 168:0.023816112 171:-0.051736914 172:-0.02128225 173:-0.097395726 174:-0.043498941 175:-0.38192058 176:0.049816046 177:0.1308578 178:0.11397105 179:0.087248757 180:0.1310425 183:-0.13372849 185:-0.26013672 186:0.24321434 187:0.11500909 188:0.22965549 189:0.57017475 190:-0.017407523 192:-0.13098302 193:0.075639904 194:0.28741151 196:0.12399223 197:-0.089319326 198:0.011179302 200:-0.19190159 201:-0.019103518 202:-0.43853226 203:-0.011633715 204:-0.069880255 205:0.020049466 206:-0.097060405 207:-0.73071647 208:0.026253844 209:0.15831703 210:-0.067451052 211:-0.20962866 212:-0.14580142 213:-0.094683282 214:0.075840898 215:-0.17803077 216:0.35400933 218:-0.14566892 219:0.078814007 220:0.05662581 221:-0.029429827 226:0.028873321 228:-0.1306273 230:0.25777963 233:-0.14176589 235:-0.040325169 236:-0.031667512 237:-0.34976646 239:-0.017730549 241:0.078193724 242:-0.18661863 243:-0.087823451 244:-0.40221485 245:-0.12970194 247:0.17407687 248:-0.084370516 249:-0.030218897 250:0.0025074393 251:0.016520333 253:0.015462054 254:0.14077216 255:0.11702088 256:0.45314464 257:-0.063159749 258:0.04999537 259:-0.66665459 260:-0.14747694 261:0.23126891 262:-0.04884721 263:-0.076398194 265:-0.11645793 266:-0.0066333069 267:-0.15417403 268:0.081565119 269:-0.22322547 270:-0.058220286 272:-0.059064113 273:-0.030972162 275:-0.028584737 276:0.082556352 277:-0.061251149 278:-0.0028670724 279:-0.032998674 280:0.44098708 281:0.0068143825 282:-0.05601529 283:0.37219846 284:-0.01112727 285:0.094551504 286:-0.059917271 290:0.053885095 291:-0.018716348 292:0.11070761 294:0.12628673 295:-0.065888524 296:0.19726413 297:-0.070616111 298:0.01149723 299:-0.056525793 300:-0.04781244 302:0.1652972 303:-0.18793187 304:0.0052200672 305:-0.14622964 306:0.22809197 307:-0.14727081 308:-0.080269337 309:-0.24830362 310:-0.59957051 311:-0.11279808 312:0.035567179 313:0.024741232 314:0.12712751 315:-0.12634584 316:0.016520333 317:0.11387702 318:0.23819862 319:0.088139877 322:-0.04980443 323:-0.021864476 324:0.19199297 325:0.016115671 326:0.068652637 327:-0.053392507 328:-0.014874209 329:-0.15132084 330:0.11154703 332:-0.20551139 334:-0.006495106 335:0.6052435 336:0.2456966 337:-0.051035799 338:-0.023942947 340:0.016520333 341:-0.13868055 342:-0.16725542 343:-0.11723647 345:0.25752577 346:0.052422926 347:0.19737113 348:0.34747899 349:-0.084864207 350:-0.062996686 351:-0.21621941 352:0.042302616 354:-0.04884721 355:0.065433227 356:0.095730573 357:0.13098414 358:0.11577087 359:-0.085519046 360:0.0059273499 361:0.0099977115 362:0.30556586 363:-1.5681432 365:0.40059942 366:0.17068224 368:0.081054613 369:0.014776463 371:-0.39966509 372:-0.00042037186 373:-0.11691809 375:-0.080269337 376:0.64013505 379:0.17685622 380:-0.030051647 381:0.14828245 382:-0.090707362 383:0.036350865 384:-0.14622964 385:-0.05195985 386:-0.044884339 387:-0.06755051 388:0.025411755 389:0.042072773 390:0.051410846 392:-0.097060405 394:0.01250747 395:0.27612925 396:0.4347167 397:-0.050164368 398:0.011326579 399:-0.081595331 400:-0.002052804 401:0.025411755 402:0.084184602 403:0.022102455 404:-0.090915971 405:0.10049112 406:-0.044299603 407:0.20417649 408:0.41864714 409:0.048037734 410:0.30267602 411:0.51448429 413:-0.028935315 415:-0.023196444 416:0.087981984 417:-0.020135017 418:-0.52472508 419:-0.41682991 420:-0.092169702 421:-0.016696338 422:0.018804805 423:0.025411755 424:0.059553649 425:-0.1306273 426:-0.0012672098 427:0.17109279 428:-0.21319066 429:-0.10065887 431:-0.061488025 432:-1.0072668 433:0.095029473 434:-0.071216159 435:-0.075403966 436:-0.21192068 437:0.43022227 438:0.023472061 439:0.066264622 442:-0.28497109 443:0.21428144 444:0.18530388 445:-0.56034815 446:0.059110682 448:0.016520333 449:-0.018792421 450:0.53685129 451:-0.261336 452:-0.053064018 453:0.18736231 454:-0.22851408 455:0.088139877 457:0.035567179 458:0.13115971 459:0.080347024 461:0.083450973 462:0.59663558 463:-0.47566232 464:-0.061164219 467:-0.037179988 469:0.088139877 470:0.2215279 471:-0.21015465 473:-0.0011465359 474:0.12586415 476:-0.53607315 477:0.21634012 478:-0.040751267 479:-0.040751267 480:0.41676253 481:0.43863839 483:-0.081215225 484:-0.57578278 485:-0.079262614 486:-0.10096075 487:-0.0076047904 490:0.22458602 491:0.045685716 492:0.18463415 493:-0.040751267 494:0.18463415 495:0.13255835 496:0.014347345 497:0.32252094 498:-0.04501275 499:0.20075804 500:-0.10410697 503:0.21118854 504:-0.1455214 505:0.16134755 506:0.20601992 508:0.083366916 509:-0.22054349 510:0.13611405 511:-0.046807114 513:-0.095866501 515:-0.010629952 517:-0.1306273 518:-0.039527137 520:0.33689615 521:0.031755768 522:0.16594149 523:0.36142105 524:-0.12858874 526:0.028380059 527:0.1790081 528:0.094771713 530:0.18799856 531:-0.1004741 533:0.18636918 534:0.45097136 535:-0.12415905 536:0.0049855304 538:0.037939724 540:0.17046002 541:0.083830997 542:0.18308049 543:-0.3707073 545:-0.0062988354 549:0.024093775 551:-0.049632605 552:1.522532e-13 553:0.22354318 554:-0.10410697 555:-0.018716348 556:0.2586613 558:0.033687212 559:-0.080269337 560:0.29522353 561:-0.034321841 562:-0.0080794627 564:-0.024119677 565:0.01250747 567:-0.034832042 568:0.066087849 569:-0.064228415 570:0.073191583 571:-0.10658398 572:-0.16208997 573:-0.034918834 574:0.074992947 575:0.040270068 576:0.08948987 577:0.004905561 578:0.2025407 579:0.42056224 580:0.065649047 581:-0.031633858 582:-0.25652131 583:0.076197602 584:0.02278248 585:-0.029034166 586:0.19737113 587:0.40599245 588:-0.011727919 589:-0.04501275 591:0.025411755 592:0.07874395 594:0.19961472 595:0.3694047 596:0.007606552 597:0.32040077 599:0.10516714 600:-0.2627629 601:-0.046149906 602:-0.029154645 604:-0.10309447 605:-0.49854675 606:0.14363927 607:-0.026290629 609:-0.092475027 610:0.098687455 611:0.015691308 613:-0.064429559 614:0.13734604 616:0.19097297 617:-0.21407032 619:-0.029531801 620:-0.32688525 622:-0.14747694 623:-0.028295541 625:0.025877174 626:0.11905311 627:0.0012158992 628:-0.023048619 629:-0.097060405 631:0.07097891 632:-0.13216148 634:0.04451536 637:-0.039461721 638:0.91010499 640:-0.035557903 641:0.14479394 642:-0.062860064 643:-0.12751049 644:-0.020596709 646:-0.22840001 649:0.24159598 650:0.02419016 651:-0.01641527 652:-0.18197788 653:-0.077219762 654:0.083006836 655:-0.066490732 656:0.14504099 657:-0.14086325 658:-0.01333531 659:-0.14445007 660:0.064458534 661:0.0030975412 662:0.20163611 663:-0.024322946 665:-0.032676224 666:0.02956032 667:0.055253584 668:-0.1300222 670:-0.15783744 671:0.30146638 673:0.11583909 674:0.08787135 675:0.026512783 676:-0.020789729 677:0.16033648 678:-0.020429481 679:-0.02265924 680:-0.24952914 681:-0.018716348 682:0.17758162 684:-0.050025139 686:0.070919894 687:0.16429093 688:-0.1306273 689:0.045114644 691:-0.063450061 692:-0.096902631 693:-0.10009857 694:-0.079570942 695:0.040432643 696:-0.39917147 697:-0.01624823 698:-0.20505442 699:0.30070165 700:-0.10502873 #
